{
    "neuralNetworkData": {
        "hiddenLayer1": {
            "weights": [
                [
                    -0.7165624762229461,
                    0.8146495825525202,
                    0.9164662894890516,
                    0.8510737287843022,
                    0.68262286368231,
                    -0.1462799694509851,
                    -0.159851117353361,
                    0.8225529040433863
                ],
                [
                    -0.2927346599481586,
                    0.18026951408515135,
                    -0.8667967649232273,
                    0.9764748764091,
                    -0.8172926953287676,
                    0.6623190039298477,
                    0.8068652496551767,
                    0.16974393113810748
                ],
                [
                    -0.08032273567115578,
                    0.6150222259627043,
                    0.5597664086699452,
                    0.08506834878382241,
                    -0.021308854222083173,
                    0.6500246865407018,
                    -0.4824543182640615,
                    -0.1420440703082737
                ]
            ],
            "biases": [
                0.0415720145601397,
                0.07259783315319668,
                0.35372963675713676,
                -0.6554653569318458,
                -0.20903303811584495,
                -0.8255163734336306,
                0.17766282506094955,
                0.090856085799504
            ]
        },
        "hiddenLayer2": {
            "weights": [
                [
                    -0.42214028078962196,
                    -0.29713616182035185,
                    -0.14073908516562827,
                    -0.2999779157635909
                ],
                [
                    0.4839013875175864,
                    -0.7103424691807727,
                    -0.15784670118265032,
                    0.6391133359521008
                ],
                [
                    -0.0522664158677002,
                    -0.8131039743993314,
                    0.1628394075259556,
                    -0.7803858228442375
                ],
                [
                    0.8665977475732571,
                    -0.14422211099500926,
                    -0.752383086047681,
                    0.38251632713119355
                ],
                [
                    -0.8963871877463925,
                    -0.5493935308467846,
                    0.2779454211630976,
                    -0.4349201150106028
                ],
                [
                    -0.18209969674446613,
                    -0.5793089668828646,
                    -0.5519777795374616,
                    0.48912708657121273
                ],
                [
                    0.5600274209201199,
                    -0.8398906166729665,
                    -0.5449669566646609,
                    -0.13567799247177526
                ],
                [
                    0.7760364336776946,
                    -0.3929222223676354,
                    -0.9917331487553609,
                    -0.47125528837357544
                ]
            ],
            "biases": [
                0.9160966201509013,
                -0.4767122379707329,
                -0.44685102863697557,
                0.7605304470619072
            ]
        },
        "outputLayer": {
            "weights": [
                [
                    -0.4433536819819026
                ],
                [
                    0.9552644159390646
                ],
                [
                    0.43938708792753944
                ],
                [
                    0.7849096414139312
                ]
            ],
            "biases": [
                0.21203655696468804
            ]
        }
    },
    "fitness": 10063.75205021426,
    "generation": 55,
    "timestamp": "2025-04-07T01:45:34.524Z"
}